<?xml version="1.0"?>
<opencv_storage>
<cascade>
  <stageType>BOOST</stageType>
  <featureType>HAAR</featureType>
  <height>54</height>
  <width>100</width>
  <stageParams>
    <boostType>GAB</boostType>
    <minHitRate>9.9500000476837158e-01</minHitRate>
    <maxFalseAlarm>5.0000000000000000e-01</maxFalseAlarm>
    <weightTrimRate>9.4999999999999996e-01</weightTrimRate>
    <maxDepth>1</maxDepth>
    <maxWeakCount>100</maxWeakCount></stageParams>
  <featureParams>
    <maxCatCount>0</maxCatCount>
    <featSize>1</featSize>
    <mode>BASIC</mode></featureParams>
  <stageNum>6</stageNum>
  <stages>
    <!-- stage 0 -->
    <_>
      <maxWeakCount>1</maxWeakCount>
      <stageThreshold>9.1693288087844849e-01</stageThreshold>
      <weakClassifiers>
        <_>
          <internalNodes>
            0 -1 3 9.0315891429781914e-03</internalNodes>
          <leafValues>
            -1. 9.1693288087844849e-01</leafValues></_></weakClassifiers></_>
    <!-- stage 1 -->
    <_>
      <maxWeakCount>1</maxWeakCount>
      <stageThreshold>8.9274448156356812e-01</stageThreshold>
      <weakClassifiers>
        <_>
          <internalNodes>
            0 -1 2 -1.4861848205327988e-02</internalNodes>
          <leafValues>
            8.9274448156356812e-01 -1.</leafValues></_></weakClassifiers></_>
    <!-- stage 2 -->
    <_>
      <maxWeakCount>2</maxWeakCount>
      <stageThreshold>-7.5183980166912079e-02</stageThreshold>
      <weakClassifiers>
        <_>
          <internalNodes>
            0 -1 8 6.1559490859508514e-04</internalNodes>
          <leafValues>
            -9.5620435476303101e-01 8.9776355028152466e-01</leafValues></_>
        <_>
          <internalNodes>
            0 -1 4 -4.4955089688301086e-03</internalNodes>
          <leafValues>
            8.8102042675018311e-01 -9.7086638212203979e-01</leafValues></_></weakClassifiers></_>
    <!-- stage 3 -->
    <_>
      <maxWeakCount>2</maxWeakCount>
      <stageThreshold>-1.7092394828796387e-01</stageThreshold>
      <weakClassifiers>
        <_>
          <internalNodes>
            0 -1 5 1.2942862231284380e-03</internalNodes>
          <leafValues>
            -9.3700784444808960e-01 8.3281731605529785e-01</leafValues></_>
        <_>
          <internalNodes>
            0 -1 9 8.3394523244351149e-04</internalNodes>
          <leafValues>
            -8.6052864789962769e-01 7.6608395576477051e-01</leafValues></_></weakClassifiers></_>
    <!-- stage 4 -->
    <_>
      <maxWeakCount>2</maxWeakCount>
      <stageThreshold>-1.3596455752849579e-01</stageThreshold>
      <weakClassifiers>
        <_>
          <internalNodes>
            0 -1 7 7.0514539256691933e-03</internalNodes>
          <leafValues>
            -8.7096774578094482e-01 7.9141104221343994e-01</leafValues></_>
        <_>
          <internalNodes>
            0 -1 0 2.2157090716063976e-03</internalNodes>
          <leafValues>
            -7.9843431711196899e-01 7.3500317335128784e-01</leafValues></_></weakClassifiers></_>
    <!-- stage 5 -->
    <_>
      <maxWeakCount>2</maxWeakCount>
      <stageThreshold>-7.9996198415756226e-02</stageThreshold>
      <weakClassifiers>
        <_>
          <internalNodes>
            0 -1 6 -7.2994513902813196e-04</internalNodes>
          <leafValues>
            7.3607039451599121e-01 -9.2660552263259888e-01</leafValues></_>
        <_>
          <internalNodes>
            0 -1 1 1.0555168986320496e-01</internalNodes>
          <leafValues>
            -7.1631336212158203e-01 8.4660929441452026e-01</leafValues></_></weakClassifiers></_></stages>
  <features>
    <_>
      <rects>
        <_>
          0 22 15 12 -1.</_>
        <_>
          5 22 5 12 3.</_></rects>
      <tilted>0</tilted></_>
    <_>
      <rects>
        <_>
          5 0 20 54 -1.</_>
        <_>
          5 18 20 18 3.</_></rects>
      <tilted>0</tilted></_>
    <_>
      <rects>
        <_>
          18 21 30 9 -1.</_>
        <_>
          33 21 15 9 2.</_></rects>
      <tilted>0</tilted></_>
    <_>
      <rects>
        <_>
          21 19 59 15 -1.</_>
        <_>
          21 24 59 5 3.</_></rects>
      <tilted>0</tilted></_>
    <_>
      <rects>
        <_>
          41 21 24 11 -1.</_>
        <_>
          53 21 12 11 2.</_></rects>
      <tilted>0</tilted></_>
    <_>
      <rects>
        <_>
          44 17 7 8 -1.</_>
        <_>
          44 21 7 4 2.</_></rects>
      <tilted>0</tilted></_>
    <_>
      <rects>
        <_>
          51 26 4 12 -1.</_>
        <_>
          51 32 4 6 2.</_></rects>
      <tilted>0</tilted></_>
    <_>
      <rects>
        <_>
          57 18 30 17 -1.</_>
        <_>
          67 18 10 17 3.</_></rects>
      <tilted>0</tilted></_>
    <_>
      <rects>
        <_>
          89 25 6 4 -1.</_>
        <_>
          92 25 3 4 2.</_></rects>
      <tilted>0</tilted></_>
    <_>
      <rects>
        <_>
          91 26 9 4 -1.</_>
        <_>
          94 26 3 4 3.</_></rects>
      <tilted>0</tilted></_></features></cascade>
</opencv_storage>
