<?xml version="1.0"?>
<opencv_storage>
<cascade>
  <stageType>BOOST</stageType>
  <featureType>HAAR</featureType>
  <height>52</height>
  <width>100</width>
  <stageParams>
    <boostType>GAB</boostType>
    <minHitRate>9.9500000476837158e-01</minHitRate>
    <maxFalseAlarm>5.0000000000000000e-01</maxFalseAlarm>
    <weightTrimRate>9.4999999999999996e-01</weightTrimRate>
    <maxDepth>1</maxDepth>
    <maxWeakCount>100</maxWeakCount></stageParams>
  <featureParams>
    <maxCatCount>0</maxCatCount>
    <featSize>1</featSize>
    <mode>BASIC</mode></featureParams>
  <stageNum>8</stageNum>
  <stages>
    <!-- stage 0 -->
    <_>
      <maxWeakCount>1</maxWeakCount>
      <stageThreshold>8.7460815906524658e-01</stageThreshold>
      <weakClassifiers>
        <_>
          <internalNodes>
            0 -1 3 8.1588923931121826e-03</internalNodes>
          <leafValues>
            -9.8473280668258667e-01 8.7460815906524658e-01</leafValues></_></weakClassifiers></_>
    <!-- stage 1 -->
    <_>
      <maxWeakCount>2</maxWeakCount>
      <stageThreshold>-2.7070918679237366e-01</stageThreshold>
      <weakClassifiers>
        <_>
          <internalNodes>
            0 -1 13 1.3403713703155518e-02</internalNodes>
          <leafValues>
            -9.5200002193450928e-01 8.2769232988357544e-01</leafValues></_>
        <_>
          <internalNodes>
            0 -1 5 -6.1793951317667961e-04</internalNodes>
          <leafValues>
            6.8129080533981323e-01 -9.5014917850494385e-01</leafValues></_></weakClassifiers></_>
    <!-- stage 2 -->
    <_>
      <maxWeakCount>2</maxWeakCount>
      <stageThreshold>-1.0815341770648956e-01</stageThreshold>
      <weakClassifiers>
        <_>
          <internalNodes>
            0 -1 14 6.1251796782016754e-02</internalNodes>
          <leafValues>
            -7.7931034564971924e-01 8.6229509115219116e-01</leafValues></_>
        <_>
          <internalNodes>
            0 -1 8 -2.6670158840715885e-03</internalNodes>
          <leafValues>
            7.2510892152786255e-01 -9.7044849395751953e-01</leafValues></_></weakClassifiers></_>
    <!-- stage 3 -->
    <_>
      <maxWeakCount>2</maxWeakCount>
      <stageThreshold>2.1277008578181267e-02</stageThreshold>
      <weakClassifiers>
        <_>
          <internalNodes>
            0 -1 7 -6.8802823079749942e-05</internalNodes>
          <leafValues>
            7.5667655467987061e-01 -9.2920351028442383e-01</leafValues></_>
        <_>
          <internalNodes>
            0 -1 4 2.5556969642639160e-01</internalNodes>
          <leafValues>
            -5.7923150062561035e-01 9.5048052072525024e-01</leafValues></_></weakClassifiers></_>
    <!-- stage 4 -->
    <_>
      <maxWeakCount>2</maxWeakCount>
      <stageThreshold>-1.1698960512876511e-01</stageThreshold>
      <weakClassifiers>
        <_>
          <internalNodes>
            0 -1 0 9.2679390218108892e-04</internalNodes>
          <leafValues>
            -7.6223778724670410e-01 8.4364819526672363e-01</leafValues></_>
        <_>
          <internalNodes>
            0 -1 10 -6.2208790332078934e-03</internalNodes>
          <leafValues>
            6.8824088573455811e-01 -9.6063780784606934e-01</leafValues></_></weakClassifiers></_>
    <!-- stage 5 -->
    <_>
      <maxWeakCount>2</maxWeakCount>
      <stageThreshold>-1.5499611385166645e-02</stageThreshold>
      <weakClassifiers>
        <_>
          <internalNodes>
            0 -1 9 5.9764971956610680e-04</internalNodes>
          <leafValues>
            -9.4827586412429810e-01 7.7844309806823730e-01</leafValues></_>
        <_>
          <internalNodes>
            0 -1 6 1.1213187826797366e-03</internalNodes>
          <leafValues>
            -6.9539576768875122e-01 9.3277627229690552e-01</leafValues></_></weakClassifiers></_>
    <!-- stage 6 -->
    <_>
      <maxWeakCount>2</maxWeakCount>
      <stageThreshold>-7.8485719859600067e-02</stageThreshold>
      <weakClassifiers>
        <_>
          <internalNodes>
            0 -1 11 1.1524250730872154e-03</internalNodes>
          <leafValues>
            -9.1452991962432861e-01 7.7177178859710693e-01</leafValues></_>
        <_>
          <internalNodes>
            0 -1 15 9.0279597789049149e-03</internalNodes>
          <leafValues>
            -7.1000522375106812e-01 8.3604419231414795e-01</leafValues></_></weakClassifiers></_>
    <!-- stage 7 -->
    <_>
      <maxWeakCount>3</maxWeakCount>
      <stageThreshold>-9.2106956243515015e-01</stageThreshold>
      <weakClassifiers>
        <_>
          <internalNodes>
            0 -1 12 1.0023592039942741e-03</internalNodes>
          <leafValues>
            -9.1071426868438721e-01 7.4556213617324829e-01</leafValues></_>
        <_>
          <internalNodes>
            0 -1 2 7.7849719673395157e-03</internalNodes>
          <leafValues>
            -9.8163729906082153e-01 6.5780323743820190e-01</leafValues></_>
        <_>
          <internalNodes>
            0 -1 1 9.6362069249153137e-02</internalNodes>
          <leafValues>
            -6.8499433994293213e-01 8.6558067798614502e-01</leafValues></_></weakClassifiers></_></stages>
  <features>
    <_>
      <rects>
        <_>
          1 22 9 8 -1.</_>
        <_>
          4 22 3 8 3.</_></rects>
      <tilted>0</tilted></_>
    <_>
      <rects>
        <_>
          2 4 40 45 -1.</_>
        <_>
          2 19 40 15 3.</_></rects>
      <tilted>0</tilted></_>
    <_>
      <rects>
        <_>
          16 27 48 8 -1.</_>
        <_>
          32 27 16 8 3.</_></rects>
      <tilted>0</tilted></_>
    <_>
      <rects>
        <_>
          31 22 26 16 -1.</_>
        <_>
          31 22 13 8 2.</_>
        <_>
          44 30 13 8 2.</_></rects>
      <tilted>0</tilted></_>
    <_>
      <rects>
        <_>
          33 1 63 51 -1.</_>
        <_>
          33 18 63 17 3.</_></rects>
      <tilted>0</tilted></_>
    <_>
      <rects>
        <_>
          38 32 33 1 -1.</_>
        <_>
          49 32 11 1 3.</_></rects>
      <tilted>0</tilted></_>
    <_>
      <rects>
        <_>
          41 13 9 6 -1.</_>
        <_>
          41 16 9 3 2.</_></rects>
      <tilted>0</tilted></_>
    <_>
      <rects>
        <_>
          43 29 13 4 -1.</_>
        <_>
          43 31 13 2 2.</_></rects>
      <tilted>0</tilted></_>
    <_>
      <rects>
        <_>
          46 17 20 8 -1.</_>
        <_>
          46 21 20 4 2.</_></rects>
      <tilted>0</tilted></_>
    <_>
      <rects>
        <_>
          49 24 7 8 -1.</_>
        <_>
          49 28 7 4 2.</_></rects>
      <tilted>0</tilted></_>
    <_>
      <rects>
        <_>
          50 21 30 10 -1.</_>
        <_>
          60 21 10 10 3.</_></rects>
      <tilted>0</tilted></_>
    <_>
      <rects>
        <_>
          50 22 16 6 -1.</_>
        <_>
          58 22 8 6 2.</_></rects>
      <tilted>0</tilted></_>
    <_>
      <rects>
        <_>
          51 29 13 8 -1.</_>
        <_>
          51 33 13 4 2.</_></rects>
      <tilted>0</tilted></_>
    <_>
      <rects>
        <_>
          58 20 24 9 -1.</_>
        <_>
          70 20 12 9 2.</_></rects>
      <tilted>0</tilted></_>
    <_>
      <rects>
        <_>
          74 2 25 48 -1.</_>
        <_>
          74 18 25 16 3.</_></rects>
      <tilted>0</tilted></_>
    <_>
      <rects>
        <_>
          93 6 3 45 -1.</_>
        <_>
          93 21 3 15 3.</_></rects>
      <tilted>0</tilted></_></features></cascade>
</opencv_storage>
