<?xml version="1.0"?>
<opencv_storage>
<cascade>
  <stageType>BOOST</stageType>
  <featureType>HAAR</featureType>
  <height>54</height>
  <width>100</width>
  <stageParams>
    <boostType>GAB</boostType>
    <minHitRate>9.9500000476837158e-01</minHitRate>
    <maxFalseAlarm>5.0000000000000000e-01</maxFalseAlarm>
    <weightTrimRate>9.4999999999999996e-01</weightTrimRate>
    <maxDepth>1</maxDepth>
    <maxWeakCount>100</maxWeakCount></stageParams>
  <featureParams>
    <maxCatCount>0</maxCatCount>
    <featSize>1</featSize>
    <mode>BASIC</mode></featureParams>
  <stageNum>9</stageNum>
  <stages>
    <!-- stage 0 -->
    <_>
      <maxWeakCount>1</maxWeakCount>
      <stageThreshold>8.6335402727127075e-01</stageThreshold>
      <weakClassifiers>
        <_>
          <internalNodes>
            0 -1 10 -6.7100804299116135e-03</internalNodes>
          <leafValues>
            8.6335402727127075e-01 -1.</leafValues></_></weakClassifiers></_>
    <!-- stage 1 -->
    <_>
      <maxWeakCount>2</maxWeakCount>
      <stageThreshold>-2.7838584780693054e-01</stageThreshold>
      <weakClassifiers>
        <_>
          <internalNodes>
            0 -1 14 3.4714348148554564e-03</internalNodes>
          <leafValues>
            -9.6774190664291382e-01 8.2822084426879883e-01</leafValues></_>
        <_>
          <internalNodes>
            0 -1 4 2.3037604987621307e-03</internalNodes>
          <leafValues>
            -9.7981888055801392e-01 6.8935608863830566e-01</leafValues></_></weakClassifiers></_>
    <!-- stage 2 -->
    <_>
      <maxWeakCount>2</maxWeakCount>
      <stageThreshold>-2.0121467113494873e-01</stageThreshold>
      <weakClassifiers>
        <_>
          <internalNodes>
            0 -1 3 -1.5714255277998745e-04</internalNodes>
          <leafValues>
            7.6190477609634399e-01 -9.2982459068298340e-01</leafValues></_>
        <_>
          <internalNodes>
            0 -1 16 1.7455607885494828e-03</internalNodes>
          <leafValues>
            -9.1606247425079346e-01 7.2860991954803467e-01</leafValues></_></weakClassifiers></_>
    <!-- stage 3 -->
    <_>
      <maxWeakCount>2</maxWeakCount>
      <stageThreshold>8.2985848188400269e-02</stageThreshold>
      <weakClassifiers>
        <_>
          <internalNodes>
            0 -1 2 1.1176324635744095e-01</internalNodes>
          <leafValues>
            -5.3005462884902954e-01 9.2509365081787109e-01</leafValues></_>
        <_>
          <internalNodes>
            0 -1 6 -1.7891459865495563e-03</internalNodes>
          <leafValues>
            7.1738874912261963e-01 -8.4210777282714844e-01</leafValues></_></weakClassifiers></_>
    <!-- stage 4 -->
    <_>
      <maxWeakCount>3</maxWeakCount>
      <stageThreshold>-6.9203788042068481e-01</stageThreshold>
      <weakClassifiers>
        <_>
          <internalNodes>
            0 -1 12 5.9853895800188184e-04</internalNodes>
          <leafValues>
            -5.7894736528396606e-01 7.9865771532058716e-01</leafValues></_>
        <_>
          <internalNodes>
            0 -1 1 1.2512814998626709e-01</internalNodes>
          <leafValues>
            -6.6223102807998657e-01 7.5865358114242554e-01</leafValues></_>
        <_>
          <internalNodes>
            0 -1 7 2.2470290423370898e-04</internalNodes>
          <leafValues>
            -9.7044819593429565e-01 5.4914051294326782e-01</leafValues></_></weakClassifiers></_>
    <!-- stage 5 -->
    <_>
      <maxWeakCount>2</maxWeakCount>
      <stageThreshold>-2.2698833048343658e-01</stageThreshold>
      <weakClassifiers>
        <_>
          <internalNodes>
            0 -1 15 -1.9335043616592884e-03</internalNodes>
          <leafValues>
            7.0845478773117065e-01 -8.6915886402130127e-01</leafValues></_>
        <_>
          <internalNodes>
            0 -1 13 2.3290837998501956e-04</internalNodes>
          <leafValues>
            -8.2907068729400635e-01 6.4217054843902588e-01</leafValues></_></weakClassifiers></_>
    <!-- stage 6 -->
    <_>
      <maxWeakCount>1</maxWeakCount>
      <stageThreshold>7.1839082241058350e-01</stageThreshold>
      <weakClassifiers>
        <_>
          <internalNodes>
            0 -1 17 6.7662796936929226e-04</internalNodes>
          <leafValues>
            -9.8039215803146362e-01 7.1839082241058350e-01</leafValues></_></weakClassifiers></_>
    <!-- stage 7 -->
    <_>
      <maxWeakCount>3</maxWeakCount>
      <stageThreshold>6.2234103679656982e-01</stageThreshold>
      <weakClassifiers>
        <_>
          <internalNodes>
            0 -1 8 -1.9984917889814824e-04</internalNodes>
          <leafValues>
            -9.1304349899291992e-01 7.6119405031204224e-01</leafValues></_>
        <_>
          <internalNodes>
            0 -1 5 -1.8502529710531235e-03</internalNodes>
          <leafValues>
            -9.5220470428466797e-01 6.2281322479248047e-01</leafValues></_>
        <_>
          <internalNodes>
            0 -1 9 3.2357214950025082e-03</internalNodes>
          <leafValues>
            -7.4490851163864136e-01 9.1257125139236450e-01</leafValues></_></weakClassifiers></_>
    <!-- stage 8 -->
    <_>
      <maxWeakCount>2</maxWeakCount>
      <stageThreshold>-1.1824511736631393e-01</stageThreshold>
      <weakClassifiers>
        <_>
          <internalNodes>
            0 -1 11 3.1111200223676860e-04</internalNodes>
          <leafValues>
            -9.3043476343154907e-01 7.6716417074203491e-01</leafValues></_>
        <_>
          <internalNodes>
            0 -1 0 9.4233581330627203e-04</internalNodes>
          <leafValues>
            -7.7572119235992432e-01 8.1218963861465454e-01</leafValues></_></weakClassifiers></_></stages>
  <features>
    <_>
      <rects>
        <_>
          0 25 12 4 -1.</_>
        <_>
          4 25 4 4 3.</_></rects>
      <tilted>0</tilted></_>
    <_>
      <rects>
        <_>
          3 3 92 51 -1.</_>
        <_>
          3 20 92 17 3.</_></rects>
      <tilted>0</tilted></_>
    <_>
      <rects>
        <_>
          4 6 92 48 -1.</_>
        <_>
          4 22 92 16 3.</_></rects>
      <tilted>0</tilted></_>
    <_>
      <rects>
        <_>
          6 25 6 4 -1.</_>
        <_>
          9 25 3 4 2.</_></rects>
      <tilted>0</tilted></_>
    <_>
      <rects>
        <_>
          15 22 21 10 -1.</_>
        <_>
          22 22 7 10 3.</_></rects>
      <tilted>0</tilted></_>
    <_>
      <rects>
        <_>
          19 23 40 10 -1.</_>
        <_>
          19 23 20 5 2.</_>
        <_>
          39 28 20 5 2.</_></rects>
      <tilted>0</tilted></_>
    <_>
      <rects>
        <_>
          23 22 33 2 -1.</_>
        <_>
          34 22 11 2 3.</_></rects>
      <tilted>0</tilted></_>
    <_>
      <rects>
        <_>
          37 18 20 6 -1.</_>
        <_>
          37 18 10 3 2.</_>
        <_>
          47 21 10 3 2.</_></rects>
      <tilted>0</tilted></_>
    <_>
      <rects>
        <_>
          37 18 30 1 -1.</_>
        <_>
          52 18 15 1 2.</_></rects>
      <tilted>0</tilted></_>
    <_>
      <rects>
        <_>
          39 34 29 9 -1.</_>
        <_>
          39 37 29 3 3.</_></rects>
      <tilted>0</tilted></_>
    <_>
      <rects>
        <_>
          40 17 15 21 -1.</_>
        <_>
          40 24 15 7 3.</_></rects>
      <tilted>0</tilted></_>
    <_>
      <rects>
        <_>
          53 22 14 6 -1.</_>
        <_>
          53 22 7 3 2.</_>
        <_>
          60 25 7 3 2.</_></rects>
      <tilted>0</tilted></_>
    <_>
      <rects>
        <_>
          59 28 12 8 -1.</_>
        <_>
          59 28 6 4 2.</_>
        <_>
          65 32 6 4 2.</_></rects>
      <tilted>0</tilted></_>
    <_>
      <rects>
        <_>
          61 27 8 10 -1.</_>
        <_>
          61 27 4 5 2.</_>
        <_>
          65 32 4 5 2.</_></rects>
      <tilted>0</tilted></_>
    <_>
      <rects>
        <_>
          62 28 20 4 -1.</_>
        <_>
          72 28 10 4 2.</_></rects>
      <tilted>0</tilted></_>
    <_>
      <rects>
        <_>
          65 26 20 14 -1.</_>
        <_>
          65 26 10 7 2.</_>
        <_>
          75 33 10 7 2.</_></rects>
      <tilted>0</tilted></_>
    <_>
      <rects>
        <_>
          67 24 8 11 -1.</_>
        <_>
          71 24 4 11 2.</_></rects>
      <tilted>0</tilted></_>
    <_>
      <rects>
        <_>
          69 27 18 7 -1.</_>
        <_>
          75 27 6 7 3.</_></rects>
      <tilted>0</tilted></_></features></cascade>
</opencv_storage>
